<?xml version="1.0"?>
<PMML version="4.1" xmlns="http://www.dmg.org/PMML-4_1" xmlns:xsi="http://www.w3.org/2001/XMLSchema-instance" xsi:schemaLocation="http://www.dmg.org/PMML-4_1 http://www.dmg.org/v4-1/pmml-4-1.xsd">
 <Header copyright="Copyright (c) 2015 pathal" description="RPart Decision Tree Model">
  <Extension name="user" value="pathal" extender="Rattle/PMML"/>
  <Application name="Rattle/PMML" version="1.4"/>
  <Timestamp>2015-05-07 14:15:41</Timestamp>
 </Header>
 <DataDictionary numberOfFields="5">
  <DataField name="Species" optype="categorical" dataType="string">
   <Value value="setosa"/>
   <Value value="versicolor"/>
   <Value value="virginica"/>
  </DataField>
  <DataField name="SepalLen" optype="continuous" dataType="double"/>
  <DataField name="SepalWid" optype="continuous" dataType="double"/>
  <DataField name="PetalLen" optype="continuous" dataType="double"/>
  <DataField name="PetalWid" optype="continuous" dataType="double"/>
 </DataDictionary>
 <TreeModel modelName="RPart_Model" functionName="classification" algorithmName="rpart" splitCharacteristic="binarySplit" missingValueStrategy="defaultChild">
  <MiningSchema>
   <MiningField name="Species" usageType="predicted"/>
   <MiningField name="SepalLen" usageType="active"/>
   <MiningField name="SepalWid" usageType="active"/>
   <MiningField name="PetalLen" usageType="active"/>
   <MiningField name="PetalWid" usageType="active"/>
  </MiningSchema>
  <Output>
   <OutputField name="Predicted_Species" optype="categorical" dataType="string" feature="predictedValue"/>
   <OutputField name="Probability_setosa" optype="continuous" dataType="double" feature="probability" value="setosa"/>
   <OutputField name="Probability_versicolor" optype="continuous" dataType="double" feature="probability" value="versicolor"/>
   <OutputField name="Probability_virginica" optype="continuous" dataType="double" feature="probability" value="virginica"/>
  </Output>
  <Node id="1" score="setosa" recordCount="150" defaultChild="3">
   <True/>
   <ScoreDistribution value="setosa" recordCount="50" confidence="0.333333333333333"/>
   <ScoreDistribution value="versicolor" recordCount="50" confidence="0.333333333333333"/>
   <ScoreDistribution value="virginica" recordCount="50" confidence="0.333333333333333"/>
   <Node id="2" score="setosa" recordCount="50">
    <CompoundPredicate booleanOperator="surrogate">
     <SimplePredicate field="PetalLen" operator="lessThan" value="2.45"/>
     <SimplePredicate field="PetalWid" operator="lessThan" value="0.8"/>
     <SimplePredicate field="SepalLen" operator="lessThan" value="5.45"/>
     <SimplePredicate field="SepalWid" operator="greaterOrEqual" value="3.35"/>
    </CompoundPredicate>
    <ScoreDistribution value="setosa" recordCount="50" confidence="1"/>
    <ScoreDistribution value="versicolor" recordCount="0" confidence="0"/>
    <ScoreDistribution value="virginica" recordCount="0" confidence="0"/>
   </Node>
   <Node id="3" score="versicolor" recordCount="100" defaultChild="7">
    <CompoundPredicate booleanOperator="surrogate">
     <SimplePredicate field="PetalLen" operator="greaterOrEqual" value="2.45"/>
     <SimplePredicate field="PetalWid" operator="greaterOrEqual" value="0.8"/>
     <SimplePredicate field="SepalLen" operator="greaterOrEqual" value="5.45"/>
     <SimplePredicate field="SepalWid" operator="lessThan" value="3.35"/>
    </CompoundPredicate>
    <ScoreDistribution value="setosa" recordCount="0" confidence="0"/>
    <ScoreDistribution value="versicolor" recordCount="50" confidence="0.5"/>
    <ScoreDistribution value="virginica" recordCount="50" confidence="0.5"/>
    <Node id="6" score="versicolor" recordCount="54">
     <CompoundPredicate booleanOperator="surrogate">
      <SimplePredicate field="PetalWid" operator="lessThan" value="1.75"/>
      <SimplePredicate field="PetalLen" operator="lessThan" value="4.75"/>
      <SimplePredicate field="SepalLen" operator="lessThan" value="6.15"/>
      <SimplePredicate field="SepalWid" operator="lessThan" value="2.95"/>
     </CompoundPredicate>
     <ScoreDistribution value="setosa" recordCount="0" confidence="0"/>
     <ScoreDistribution value="versicolor" recordCount="49" confidence="0.907407407407407"/>
     <ScoreDistribution value="virginica" recordCount="5" confidence="0.0925925925925926"/>
    </Node>
    <Node id="7" score="virginica" recordCount="46">
     <CompoundPredicate booleanOperator="surrogate">
      <SimplePredicate field="PetalWid" operator="greaterOrEqual" value="1.75"/>
      <SimplePredicate field="PetalLen" operator="greaterOrEqual" value="4.75"/>
      <SimplePredicate field="SepalLen" operator="greaterOrEqual" value="6.15"/>
      <SimplePredicate field="SepalWid" operator="greaterOrEqual" value="2.95"/>
     </CompoundPredicate>
     <ScoreDistribution value="setosa" recordCount="0" confidence="0"/>
     <ScoreDistribution value="versicolor" recordCount="1" confidence="0.0217391304347826"/>
     <ScoreDistribution value="virginica" recordCount="45" confidence="0.978260869565217"/>
    </Node>
   </Node>
  </Node>
 </TreeModel>
</PMML>
